%YAML:1.0
my_svm: !!opencv-ml-svm
   svm_type: C_SVC
   kernel: { type:RBF, gamma:5.0625000000000009e-001 }
   C: 1.2500000000000000e+001
   term_criteria: { epsilon:1.1920928955078125e-007, iterations:1000 }
   var_all: 2
   var_count: 2
   class_count: 2
   class_labels: !!opencv-matrix
      rows: 1
      cols: 2
      dt: i
      data: [ -1, 1 ]
   sv_total: 434
   support_vectors:
      - [ 8.96461334e+001, 1.04625397e+001 ]
      - [ 3.77857285e+001, 1.16840305e+001 ]
      - [ 1.93263721e+001, 1.21656942e+001 ]
      - [ 1.02676514e+002, 1.06397629e+001 ]
      - [ 5.22100677e+001, 1.12160082e+001 ]
      - [ 7.78477707e+001, 1.08409023e+001 ]
      - [ 1.44852234e+002, 1.00046501e+001 ]
      - [ 1.04328278e+002, 1.03234510e+001 ]
      - [ 3.56834106e+001, 1.11695318e+001 ]
      - [ 8.21941528e+001, 1.05094137e+001 ]
      - [ 1.64019730e+002, 9.89159966e+000 ]
      - [ 5.09844055e+001, 1.10008745e+001 ]
      - [ 2.66598091e+001, 1.15226774e+001 ]
      - [ 7.33362579e+001, 1.02817869e+001 ]
      - [ 6.59119034e+001, 1.09550724e+001 ]
      - [ 4.74724388e+001, 1.14117031e+001 ]
      - [ 1.36855652e+002, 1.01674662e+001 ]
      - [ 1.20637848e+002, 1.00034847e+001 ]
      - [ 1.13519257e+002, 1.01140108e+001 ]
      - [ 1.41849152e+002, 9.99356937e+000 ]
      - [ 7.75774460e+001, 1.05391216e+001 ]
      - [ 8.13156281e+001, 1.02902813e+001 ]
      - [ 8.69286880e+001, 1.03572159e+001 ]
      - [ 1.48583374e+002, 1.00773726e+001 ]
      - [ 6.26480446e+001, 1.07886496e+001 ]
      - [ 1.34504974e+002, 9.83624935e+000 ]
      - [ 9.43434525e+001, 1.03076429e+001 ]
      - [ 6.29219475e+001, 1.03537836e+001 ]
      - [ 1.07178619e+002, 1.00707016e+001 ]
      - [ 5.95911751e+001, 1.10117817e+001 ]
      - [ 9.71890106e+001, 1.05190887e+001 ]
      - [ 2.90886383e+001, 1.18986254e+001 ]
      - [ 1.00324715e+002, 1.04635582e+001 ]
      - [ 5.96031837e+001, 1.07593908e+001 ]
      - [ 1.23128609e+002, 1.02628260e+001 ]
      - [ 5.43167839e+001, 1.07476902e+001 ]
      - [ 5.16628761e+001, 1.07278605e+001 ]
      - [ 7.11732559e+001, 1.05333157e+001 ]
      - [ 1.11187889e+002, 1.00950756e+001 ]
      - [ 4.39877701e+001, 1.10856390e+001 ]
      - [ 1.34880569e+002, 1.01436548e+001 ]
      - [ 1.18185509e+002, 1.07165918e+001 ]
      - [ 7.10206680e+001, 1.05492716e+001 ]
      - [ 1.86847122e+002, 1.00470219e+001 ]
      - [ 5.96335793e+001, 1.05338631e+001 ]
      - [ 4.47297630e+001, 1.09453669e+001 ]
      - [ 2.17012043e+001, 1.17840309e+001 ]
      - [ 7.48877945e+001, 1.06066008e+001 ]
      - [ 9.00836716e+001, 1.01983356e+001 ]
      - [ 8.90551987e+001, 1.03232069e+001 ]
      - [ 6.00275764e+001, 1.04573765e+001 ]
      - [ 8.21762848e+001, 1.05231104e+001 ]
      - [ 1.65333740e+002, 9.88049316e+000 ]
      - [ 8.91107635e+001, 1.03781042e+001 ]
      - [ 8.10533371e+001, 1.05524836e+001 ]
      - [ 5.85714417e+001, 1.03709021e+001 ]
      - [ 9.20921097e+001, 1.06396408e+001 ]
      - [ 5.74789581e+001, 1.05538588e+001 ]
      - [ 4.43471146e+001, 1.13100376e+001 ]
      - [ 1.10005173e+002, 1.00705938e+001 ]
      - [ 5.01562614e+001, 1.04834070e+001 ]
      - [ 1.42360947e+002, 1.00346889e+001 ]
      - [ 1.11104774e+002, 1.02438908e+001 ]
      - [ 1.28283676e+002, 1.00772104e+001 ]
      - [ 6.60592422e+001, 1.04109020e+001 ]
      - [ 1.27814896e+002, 1.02358313e+001 ]
      - [ 5.56835136e+001, 1.06814404e+001 ]
      - [ 4.46420288e+001, 1.11731358e+001 ]
      - [ 1.04956779e+002, 1.04324226e+001 ]
      - [ 9.96319885e+001, 1.01337843e+001 ]
      - [ 7.17102890e+001, 1.05610132e+001 ]
      - [ 6.62413177e+001, 1.13888340e+001 ]
      - [ 6.77524872e+001, 1.06859293e+001 ]
      - [ 5.12336960e+001, 1.09274225e+001 ]
      - [ 4.42664337e+001, 1.11321697e+001 ]
      - [ 5.40037918e+001, 1.08799925e+001 ]
      - [ 5.04321022e+001, 1.12187767e+001 ]
      - [ 8.55575562e+001, 1.03795834e+001 ]
      - [ 1.94923416e+002, 9.49652672e+000 ]
      - [ 7.41372910e+001, 1.05312328e+001 ]
      - [ 9.40123062e+001, 1.00887060e+001 ]
      - [ 6.64459000e+001, 1.05029697e+001 ]
      - [ 9.99699402e+001, 1.02713547e+001 ]
      - [ 7.57812271e+001, 1.05527344e+001 ]
      - [ 5.31550217e+001, 1.05085402e+001 ]
      - [ 9.48219833e+001, 1.03086786e+001 ]
      - [ 5.22685547e+001, 1.10606146e+001 ]
      - [ 6.76507874e+001, 1.08651867e+001 ]
      - [ 5.19962196e+001, 1.05380869e+001 ]
      - [ 5.27013702e+001, 1.07674656e+001 ]
      - [ 6.54532089e+001, 1.04762793e+001 ]
      - [ 7.22881088e+001, 1.05360317e+001 ]
      - [ 8.98461075e+001, 1.00803099e+001 ]
      - [ 1.19845680e+002, 1.03925838e+001 ]
      - [ 7.90418625e+001, 1.04856396e+001 ]
      - [ 5.35708351e+001, 1.07034883e+001 ]
      - [ 1.28214127e+002, 1.01940470e+001 ]
      - [ 5.56835136e+001, 1.06814404e+001 ]
      - [ 2.42199535e+001, 1.17990828e+001 ]
      - [ 1.32401276e+002, 9.84835243e+000 ]
      - [ 9.07799072e+001, 1.09015923e+001 ]
      - [ 6.03882256e+001, 1.07233458e+001 ]
      - [ 9.02744980e+001, 1.03766651e+001 ]
      - [ 6.34772110e+001, 1.08777618e+001 ]
      - [ 5.09013596e+001, 1.09605141e+001 ]
      - [ 1.29855988e+002, 9.80727291e+000 ]
      - [ 1.34798065e+002, 1.01266336e+001 ]
      - [ 7.00240555e+001, 1.06022749e+001 ]
      - [ 1.55168991e+002, 1.00446186e+001 ]
      - [ 1.71579910e+002, 9.76073074e+000 ]
      - [ 4.08065987e+001, 1.10649815e+001 ]
      - [ 1.10951759e+002, 1.02064714e+001 ]
      - [ 1.55737963e+001, 1.23129759e+001 ]
      - [ 1.46136795e+002, 9.47572422e+000 ]
      - [ 1.43595245e+002, 9.75378609e+000 ]
      - [ 1.12398438e+002, 1.03666773e+001 ]
      - [ 6.70732803e+001, 1.03344116e+001 ]
      - [ 8.34534683e+001, 1.04562979e+001 ]
      - [ 5.67241058e+001, 1.07937717e+001 ]
      - [ 8.28553085e+001, 1.05407581e+001 ]
      - [ 6.03845634e+001, 1.07170477e+001 ]
      - [ 1.48742447e+002, 9.76220512e+000 ]
      - [ 6.50885086e+001, 1.04949341e+001 ]
      - [ 9.67980576e+001, 1.03178568e+001 ]
      - [ 5.02699394e+001, 1.10210075e+001 ]
      - [ 8.51845016e+001, 1.05940552e+001 ]
      - [ 4.50447083e+001, 1.12017155e+001 ]
      - [ 5.85394936e+001, 1.06097879e+001 ]
      - [ 7.97656174e+001, 1.05443401e+001 ]
      - [ 3.13327503e+001, 1.14472933e+001 ]
      - [ 1.20548981e+002, 1.01964960e+001 ]
      - [ 9.00836716e+001, 1.01983356e+001 ]
      - [ 1.31334274e+002, 9.74159527e+000 ]
      - [ 6.75321426e+001, 1.06157913e+001 ]
      - [ 9.78856659e+001, 1.05522947e+001 ]
      - [ 7.67474518e+001, 1.04341354e+001 ]
      - [ 1.03063675e+002, 1.01700039e+001 ]
      - [ 1.04568932e+002, 1.02556295e+001 ]
      - [ 5.68436966e+001, 1.05909977e+001 ]
      - [ 9.50727463e+001, 1.02801943e+001 ]
      - [ 1.24017044e+002, 1.01112232e+001 ]
      - [ 6.42001419e+001, 1.07051611e+001 ]
      - [ 6.89665222e+001, 1.02195234e+001 ]
      - [ 3.34642220e+001, 1.13630219e+001 ]
      - [ 8.21357269e+001, 1.05201893e+001 ]
      - [ 8.68524551e+001, 1.03551970e+001 ]
      - [ 1.15361740e+002, 1.02023525e+001 ]
      - [ 9.74940643e+001, 1.04694824e+001 ]
      - [ 9.58722687e+001, 1.07450991e+001 ]
      - [ 8.49993439e+001, 9.95936203e+000 ]
      - [ 1.20259331e+002, 1.02465839e+001 ]
      - [ 6.88176270e+001, 1.05481939e+001 ]
      - [ 1.39671448e+002, 1.02181253e+001 ]
      - [ 7.26425323e+001, 1.04684296e+001 ]
      - [ 5.97947731e+001, 1.06490049e+001 ]
      - [ 9.75909576e+001, 9.97725010e+000 ]
      - [ 1.26464378e+002, 1.02137156e+001 ]
      - [ 1.32844849e+002, 1.06195917e+001 ]
      - [ 6.69061432e+001, 1.07417679e+001 ]
      - [ 1.95118835e+002, 9.84004593e+000 ]
      - [ 7.87576828e+001, 1.11823874e+001 ]
      - [ 9.89129028e+001, 1.03548241e+001 ]
      - [ 8.04206009e+001, 1.04589825e+001 ]
      - [ 1.39674759e+002, 1.01249590e+001 ]
      - [ 5.07759590e+001, 1.07000389e+001 ]
      - [ 8.76006241e+001, 1.04633150e+001 ]
      - [ 1.15636879e+002, 1.01062098e+001 ]
      - [ 1.91528046e+002, 9.66287136e+000 ]
      - [ 6.09732132e+001, 1.07816658e+001 ]
      - [ 7.06714249e+001, 1.04804525e+001 ]
      - [ 7.33362579e+001, 1.02817869e+001 ]
      - [ 7.32992477e+001, 1.06223974e+001 ]
      - [ 6.20301628e+001, 1.07364502e+001 ]
      - [ 1.16704765e+002, 1.01589031e+001 ]
      - [ 6.03845634e+001, 1.07170477e+001 ]
      - [ 7.79766922e+001, 1.05581675e+001 ]
      - [ 9.17873306e+001, 1.04848003e+001 ]
      - [ 7.34300232e+001, 1.06794977e+001 ]
      - [ 1.31000290e+002, 1.02146311e+001 ]
      - [ 9.33668594e+001, 1.03084612e+001 ]
      - [ 1.06897255e+002, 1.03380966e+001 ]
      - [ 8.48205490e+001, 1.02738380e+001 ]
      - [ 8.08630295e+001, 1.04687662e+001 ]
      - [ 1.22814842e+002, 1.02416544e+001 ]
      - [ 5.82413292e+001, 1.08314333e+001 ]
      - [ 1.48901443e+002, 9.72319698e+000 ]
      - [ 8.38340988e+001, 1.03617830e+001 ]
      - [ 8.87223587e+001, 1.01477127e+001 ]
      - [ 6.60455475e+001, 1.04584017e+001 ]
      - [ 6.88686981e+001, 1.03226614e+001 ]
      - [ 8.82907257e+001, 1.04480639e+001 ]
      - [ 8.94319839e+001, 1.02823677e+001 ]
      - [ 1.06955009e+002, 1.00720463e+001 ]
      - [ 1.33720779e+002, 1.00441036e+001 ]
      - [ 2.16793091e+002, 9.55867672e+000 ]
      - [ 1.04636711e+002, 1.00687704e+001 ]
      - [ 1.28661224e+002, 9.88336277e+000 ]
      - [ 1.26056389e+002, 1.00890894e+001 ]
      - [ 1.07047440e+002, 9.81927204e+000 ]
      - [ 9.77464828e+001, 1.02039309e+001 ]
      - [ 1.31049515e+002, 9.59861469e+000 ]
      - [ 2.36785812e+002, 9.40993404e+000 ]
      - [ 1.31638382e+002, 9.82812691e+000 ]
      - [ 1.09746094e+002, 1.00043516e+001 ]
      - [ 5.59092140e+001, 1.04677725e+001 ]
      - [ 8.53423767e+001, 1.02308512e+001 ]
      - [ 1.94919571e+002, 9.46435928e+000 ]
      - [ 1.03039429e+002, 1.01012335e+001 ]
      - [ 5.20851593e+001, 1.07958040e+001 ]
      - [ 1.48652145e+002, 9.77622318e+000 ]
      - [ 1.65395798e+002, 9.74955559e+000 ]
      - [ 1.83474930e+002, 9.85841751e+000 ]
      - [ 8.49049301e+001, 1.02138739e+001 ]
      - [ 1.15274834e+002, 1.01269274e+001 ]
      - [ 8.09078522e+001, 1.04875937e+001 ]
      - [ 1.30969177e+002, 9.87558460e+000 ]
      - [ 1.31185272e+002, 1.00828218e+001 ]
      - [ 5.60244446e+001, 1.07226868e+001 ]
      - [ 5.88695145e+001, 1.04009542e+001 ]
      - [ 1.37240341e+002, 1.00625353e+001 ]
      - [ 8.68577271e+001, 1.02052784e+001 ]
      - [ 1.63554626e+002, 9.56861687e+000 ]
      - [ 1.34686249e+002, 9.68525887e+000 ]
      - [ 1.03696625e+002, 1.00905857e+001 ]
      - [ 8.99601440e+001, 1.02890406e+001 ]
      - [ 5.84285698e+001, 1.04204340e+001 ]
      - [ 1.48847076e+002, 9.65739918e+000 ]
      - [ 8.03571014e+001, 1.02000904e+001 ]
      - [ 1.13878311e+002, 1.00252838e+001 ]
      - [ 1.46510239e+002, 9.75740051e+000 ]
      - [ 1.42845581e+002, 9.61089993e+000 ]
      - [ 8.49175339e+001, 9.97272015e+000 ]
      - [ 1.43228867e+002, 9.89913654e+000 ]
      - [ 1.13450142e+002, 9.77258682e+000 ]
      - [ 6.61297607e+001, 1.05427885e+001 ]
      - [ 1.31391434e+002, 9.78267193e+000 ]
      - [ 1.34696609e+002, 9.96947479e+000 ]
      - [ 1.30131943e+002, 9.66061020e+000 ]
      - [ 9.65947723e+001, 1.00586405e+001 ]
      - [ 1.07570015e+002, 1.01673460e+001 ]
      - [ 8.46180496e+001, 1.01388693e+001 ]
      - [ 7.48407974e+001, 1.03231850e+001 ]
      - [ 9.97303314e+001, 1.01520662e+001 ]
      - [ 5.84104156e+001, 1.04356556e+001 ]
      - [ 9.71408997e+001, 1.04102516e+001 ]
      - [ 1.90924103e+002, 9.35390091e+000 ]
      - [ 8.41408997e+001, 1.01355209e+001 ]
      - [ 1.40069962e+002, 9.88637924e+000 ]
      - [ 9.32961197e+001, 1.02218933e+001 ]
      - [ 8.47552795e+001, 1.01706419e+001 ]
      - [ 6.02718925e+001, 1.04628611e+001 ]
      - [ 9.91317291e+001, 1.01084919e+001 ]
      - [ 2.05937302e+002, 9.37878513e+000 ]
      - [ 9.40226822e+001, 1.00705767e+001 ]
      - [ 5.75500259e+001, 1.04803562e+001 ]
      - [ 1.23484612e+002, 9.90056992e+000 ]
      - [ 5.96242752e+001, 1.03522978e+001 ]
      - [ 6.07349510e+001, 1.06046715e+001 ]
      - [ 1.39668320e+002, 9.88356018e+000 ]
      - [ 1.48291687e+002, 9.97445202e+000 ]
      - [ 6.04198875e+001, 1.07132797e+001 ]
      - [ 5.92820663e+001, 1.04245024e+001 ]
      - [ 7.31389236e+001, 1.04310455e+001 ]
      - [ 1.43944992e+002, 9.90333176e+000 ]
      - [ 1.45294281e+002, 9.82380962e+000 ]
      - [ 1.15946800e+002, 9.91517544e+000 ]
      - [ 6.70782318e+001, 1.03274727e+001 ]
      - [ 1.18008926e+002, 1.03557730e+001 ]
      - [ 7.55190964e+001, 1.04465599e+001 ]
      - [ 6.87458496e+001, 1.04311018e+001 ]
      - [ 1.64318680e+002, 9.65458488e+000 ]
      - [ 1.29341064e+002, 9.89086056e+000 ]
      - [ 1.06675194e+002, 1.02464104e+001 ]
      - [ 1.41992035e+002, 9.97053242e+000 ]
      - [ 1.35333832e+002, 1.00400391e+001 ]
      - [ 7.06772003e+001, 1.06034145e+001 ]
      - [ 7.93558884e+001, 1.02679787e+001 ]
      - [ 1.13311890e+002, 1.02417631e+001 ]
      - [ 9.03244934e+001, 1.02374954e+001 ]
      - [ 5.90714684e+001, 1.03323946e+001 ]
      - [ 1.24948509e+002, 1.01765423e+001 ]
      - [ 6.32108421e+001, 1.03415270e+001 ]
      - [ 1.32635071e+002, 1.00950575e+001 ]
      - [ 7.17336197e+001, 1.04984770e+001 ]
      - [ 8.61222534e+001, 1.01924000e+001 ]
      - [ 6.23254929e+001, 1.04528694e+001 ]
      - [ 7.69155960e+001, 1.04335089e+001 ]
      - [ 8.82526627e+001, 1.02002544e+001 ]
      - [ 1.26807838e+002, 1.00360098e+001 ]
      - [ 1.34782730e+002, 9.79608727e+000 ]
      - [ 4.44866447e+001, 1.11143360e+001 ]
      - [ 7.07351608e+001, 1.03679848e+001 ]
      - [ 1.35246292e+002, 1.00246611e+001 ]
      - [ 1.91850769e+002, 9.63682365e+000 ]
      - [ 1.11575592e+002, 1.02625675e+001 ]
      - [ 8.78584366e+001, 1.02672215e+001 ]
      - [ 2.11675598e+002, 9.11311150e+000 ]
      - [ 8.24492264e+001, 1.03746738e+001 ]
      - [ 7.24422455e+001, 1.02990646e+001 ]
      - [ 1.41931931e+002, 1.00883522e+001 ]
      - [ 6.37587852e+001, 1.07686300e+001 ]
      - [ 1.55221100e+002, 9.93369579e+000 ]
      - [ 1.71546860e+002, 9.78424263e+000 ]
      - [ 8.86049957e+001, 1.02623663e+001 ]
      - [ 5.08357391e+001, 1.09394827e+001 ]
      - [ 7.42988510e+001, 1.04173517e+001 ]
      - [ 1.46759979e+002, 9.67293072e+000 ]
      - [ 7.65547256e+001, 1.02894526e+001 ]
      - [ 1.77436035e+002, 9.68197536e+000 ]
      - [ 1.09898872e+002, 9.98080349e+000 ]
      - [ 1.36043961e+002, 1.00118847e+001 ]
      - [ 9.61904984e+001, 1.03631172e+001 ]
      - [ 9.20127945e+001, 1.02194347e+001 ]
      - [ 8.50943985e+001, 1.00858231e+001 ]
      - [ 1.30126602e+002, 1.01984520e+001 ]
      - [ 9.99065475e+001, 1.01415720e+001 ]
      - [ 1.10856857e+002, 9.98312187e+000 ]
      - [ 1.32480164e+002, 9.81858730e+000 ]
      - [ 7.34816360e+001, 1.03028460e+001 ]
      - [ 5.91159554e+001, 1.06979179e+001 ]
      - [ 7.71258163e+001, 1.01528177e+001 ]
      - [ 1.31446823e+002, 9.89758110e+000 ]
      - [ 6.63518372e+001, 1.02535295e+001 ]
      - [ 1.16774910e+002, 9.78414536e+000 ]
      - [ 1.24133499e+002, 9.83314133e+000 ]
      - [ 9.92098999e+001, 1.01025295e+001 ]
      - [ 6.88140411e+001, 1.03639841e+001 ]
      - [ 5.02709076e+002, 9.44935226e+000 ]
      - [ 7.20530930e+001, 1.03931541e+001 ]
      - [ 7.38679504e+001, 1.04213018e+001 ]
      - [ 1.22951019e+002, 1.00532808e+001 ]
      - [ 1.96183777e+002, 9.76647186e+000 ]
      - [ 9.73652420e+001, 1.02634926e+001 ]
      - [ 7.85812759e+001, 1.04137669e+001 ]
      - [ 1.19439545e+002, 1.02867746e+001 ]
      - [ 1.12958710e+002, 1.00333261e+001 ]
      - [ 1.92488617e+002, 9.15354729e+000 ]
      - [ 2.27610519e+002, 9.42948723e+000 ]
      - [ 1.49142853e+002, 9.81407452e+000 ]
      - [ 1.20004776e+002, 1.00304880e+001 ]
      - [ 5.42178688e+001, 1.05940113e+001 ]
      - [ 1.34418304e+002, 9.86362171e+000 ]
      - [ 5.97690353e+001, 1.06657820e+001 ]
      - [ 8.36071854e+001, 1.01449509e+001 ]
      - [ 6.63532639e+001, 1.04791336e+001 ]
      - [ 5.71410599e+001, 1.04372215e+001 ]
      - [ 1.10322205e+002, 9.94437027e+000 ]
      - [ 1.29303802e+002, 1.00858822e+001 ]
      - [ 1.28070663e+002, 9.86655045e+000 ]
      - [ 7.35920563e+001, 1.05017357e+001 ]
      - [ 6.75521240e+001, 1.04895401e+001 ]
      - [ 9.72330856e+001, 9.95760250e+000 ]
      - [ 1.65093094e+002, 9.96230125e+000 ]
      - [ 9.47661896e+001, 1.00816250e+001 ]
      - [ 7.79846802e+001, 1.06626625e+001 ]
      - [ 1.91332428e+002, 9.89238930e+000 ]
      - [ 8.93170700e+001, 1.02281942e+001 ]
      - [ 6.28793983e+001, 1.05061569e+001 ]
      - [ 1.33139999e+002, 1.02654047e+001 ]
      - [ 8.06999893e+001, 1.03176394e+001 ]
      - [ 1.34611038e+002, 9.95302486e+000 ]
      - [ 9.25596771e+001, 1.02977867e+001 ]
      - [ 1.16421005e+002, 9.71788979e+000 ]
      - [ 1.00264313e+002, 1.01953640e+001 ]
      - [ 6.58086014e+001, 1.05058231e+001 ]
      - [ 9.02410736e+001, 1.03089571e+001 ]
      - [ 9.50569992e+001, 1.02289791e+001 ]
      - [ 8.95760574e+001, 1.02355623e+001 ]
      - [ 1.48931915e+002, 9.77916050e+000 ]
      - [ 6.71204300e+001, 1.06138725e+001 ]
      - [ 1.30324371e+002, 9.99733162e+000 ]
      - [ 5.37608948e+001, 1.06194229e+001 ]
      - [ 1.86813110e+002, 9.60349083e+000 ]
      - [ 9.01028824e+001, 1.02660904e+001 ]
      - [ 1.53896469e+002, 9.82764721e+000 ]
      - [ 1.02863457e+002, 1.01843290e+001 ]
      - [ 2.44553940e+002, 9.35883331e+000 ]
      - [ 9.97006454e+001, 1.02010441e+001 ]
      - [ 1.71769943e+002, 9.50516891e+000 ]
      - [ 8.49785690e+001, 9.85970497e+000 ]
      - [ 8.96781158e+001, 1.01133099e+001 ]
      - [ 8.89278870e+001, 1.01370144e+001 ]
      - [ 1.20600967e+002, 1.01177139e+001 ]
      - [ 1.43389267e+002, 9.67927361e+000 ]
      - [ 9.13829193e+001, 1.02213287e+001 ]
      - [ 9.03041916e+001, 1.02327986e+001 ]
      - [ 8.16847305e+001, 1.03304491e+001 ]
      - [ 9.43311310e+001, 9.98929310e+000 ]
      - [ 8.49328156e+001, 1.03242741e+001 ]
      - [ 1.24314392e+002, 9.91139889e+000 ]
      - [ 7.11438293e+001, 1.04208736e+001 ]
      - [ 7.55591583e+001, 1.02857647e+001 ]
      - [ 1.28135803e+002, 9.96497631e+000 ]
      - [ 1.21821198e+002, 1.01083469e+001 ]
      - [ 1.23150009e+002, 1.00603237e+001 ]
      - [ 8.16958466e+001, 1.03235941e+001 ]
      - [ 9.76876068e+001, 9.93097401e+000 ]
      - [ 1.20727562e+002, 9.88480282e+000 ]
      - [ 7.13773193e+001, 1.04060192e+001 ]
      - [ 8.71930542e+001, 1.02514572e+001 ]
      - [ 9.87572327e+001, 1.01699581e+001 ]
      - [ 1.49344269e+002, 9.91303921e+000 ]
      - [ 1.94597488e+002, 9.71250629e+000 ]
      - [ 5.31152840e+001, 1.05451574e+001 ]
      - [ 1.44719543e+002, 9.92609692e+000 ]
      - [ 1.36838837e+002, 9.95775223e+000 ]
      - [ 9.04301147e+001, 1.02858019e+001 ]
      - [ 1.10450844e+002, 9.97341728e+000 ]
      - [ 6.52593842e+001, 1.04485235e+001 ]
      - [ 1.45467255e+002, 1.00300903e+001 ]
      - [ 1.31806900e+002, 9.97970200e+000 ]
      - [ 1.87527206e+002, 9.64463615e+000 ]
      - [ 1.11135597e+002, 1.00650396e+001 ]
      - [ 6.62670288e+001, 1.05443716e+001 ]
      - [ 8.99097595e+001, 9.71669388e+000 ]
      - [ 1.39428436e+002, 1.01032448e+001 ]
      - [ 1.20906380e+002, 1.02282934e+001 ]
      - [ 7.04719467e+001, 1.04065895e+001 ]
      - [ 6.02977371e+001, 1.06087770e+001 ]
      - [ 1.95860992e+002, 9.35631657e+000 ]
      - [ 9.50147095e+001, 1.01662188e+001 ]
      - [ 1.26355820e+002, 9.95177650e+000 ]
      - [ 1.45742661e+002, 9.72770786e+000 ]
      - [ 6.79132004e+001, 1.05414104e+001 ]
      - [ 1.45307037e+002, 9.46901321e+000 ]
      - [ 1.65850494e+002, 9.81181717e+000 ]
      - [ 1.95996567e+002, 9.55157757e+000 ]
      - [ 8.11101608e+001, 1.02337618e+001 ]
      - [ 1.43062698e+002, 9.74268436e+000 ]
      - [ 1.04937347e+002, 1.00998545e+001 ]
      - [ 5.07759590e+001, 1.07000389e+001 ]
      - [ 1.30153412e+002, 9.87227631e+000 ]
      - [ 1.20419991e+002, 9.87441635e+000 ]
      - [ 1.44166855e+002, 9.93323803e+000 ]
   decision_functions:
      -
         sv_count: 434
         rho: 1.7402314419728807e-001
         alpha: [ 5.2530851787751978e+000, 1.2470851659963742e+000,
             1.4433689045908173e+000, 3.0210308801889418e+000,
             1.6372435701651340e+000, 3.9764886084562070e+000,
             1.2500000000000000e+001, 2.9378402221479418e+000,
             1.0570630665460210e+000, 1.2500000000000000e+001,
             1.2500000000000000e+001, 9.4432659779728922e-001,
             1.0819998509778115e+000, 1.2500000000000000e+001,
             2.8275746831868829e+000, 1.2305826922339658e+000,
             1.2500000000000000e+001, 1.2500000000000000e+001,
             1.2500000000000000e+001, 1.2500000000000000e+001,
             6.2815664686341703e+000, 1.2500000000000000e+001,
             1.2500000000000000e+001, 1.2500000000000000e+001,
             5.1526846130711874e+000, 1.2500000000000000e+001,
             1.1971186910690710e+000, 1.2500000000000000e+001,
             1.2500000000000000e+001, 1.3647229907458391e+000,
             6.4904033098331055e+000, 1.3976103780986810e+000,
             9.8830180886999806e+000, 5.5025945990410463e+000,
             6.3627160155507818e+000, 1.0789640369218141e+001,
             4.0369993008359089e+000, 1.2500000000000000e+001,
             1.2500000000000000e+001, 1.1989002923031968e+000,
             1.2500000000000000e+001, 8.3258022727763326e+000,
             1.2500000000000000e+001, 6.1387996612681803e+000,
             1.2500000000000000e+001, 2.6882108444246526e+000,
             1.0896959749557658e+000, 1.1857941711047047e+001,
             1.2500000000000000e+001, 1.2500000000000000e+001,
             1.2500000000000000e+001, 1.4769193110520877e+000,
             1.2500000000000000e+001, 7.8540503227883107e-001,
             2.5486322960210512e+000, 1.2500000000000000e+001,
             1.9142056389422808e+000, 1.2500000000000000e+001,
             2.0254133054463201e+000, 1.2500000000000000e+001,
             1.3646482617217650e+000, 1.2500000000000000e+001,
             6.6929169839787619e+000, 1.2500000000000000e+001,
             1.2500000000000000e+001, 1.9458816573608197e+000,
             1.2500000000000000e+001, 1.8683628917484163e+000,
             1.0965203045496124e+000, 1.2500000000000000e+001,
             1.2500000000000000e+001, 1.9433497676491989e+000,
             1.2500000000000000e+001, 3.2044922388314054e+000,
             3.9598610021866447e+000, 1.9514798038332357e+000,
             1.0090979564806175e+000, 1.2500000000000000e+001,
             1.2500000000000000e+001, 1.2500000000000000e+001,
             1.2500000000000000e+001, 1.2500000000000000e+001,
             1.2500000000000000e+001, 1.2038364940306861e+001,
             1.2500000000000000e+001, 1.2500000000000000e+001,
             2.0081073145985644e+000, 1.7893692444963971e+000,
             4.0512649526922244e+000, 2.0207068817526919e+000,
             1.2500000000000000e+001, 6.6750105470950807e+000,
             1.2500000000000000e+001, 3.5680163637901217e+000,
             1.2500000000000000e+001, 1.1328485205371310e+001,
             4.5548563490301710e+000, 6.8745209773457896e+000,
             1.3820903691260629e+000, 1.2500000000000000e+001,
             6.3893519025645062e-001, 1.7539386828574217e+000,
             1.2500000000000000e+001, 1.0098049585860920e+001,
             5.3015523954648893e+000, 1.2500000000000000e+001,
             1.2500000000000000e+001, 4.6200743646248537e+000,
             1.2500000000000000e+001, 1.2500000000000000e+001,
             1.2481756244445497e+000, 9.4416781323582288e+000,
             1.7217874338034169e+000, 1.1645886550685457e+001,
             1.2500000000000000e+001, 9.2343105889793708e+000,
             1.2500000000000000e+001, 2.3110401160169562e+000,
             1.6063890754186791e+000, 1.6841217449516563e+000,
             1.2500000000000000e+001, 1.2500000000000000e+001,
             5.9535816212046528e+000, 1.2500000000000000e+001,
             1.9608558379787577e+000, 1.8986781750192270e+000,
             2.0333955916927735e+000, 1.2500000000000000e+001,
             1.1177579388946868e+000, 9.2316925477543688e-001,
             1.2500000000000000e+001, 1.2500000000000000e+001,
             1.2500000000000000e+001, 1.2500000000000000e+001,
             3.1363887755182516e+000, 1.2500000000000000e+001,
             1.2500000000000000e+001, 1.2500000000000000e+001,
             1.2500000000000000e+001, 1.2500000000000000e+001,
             1.2500000000000000e+001, 3.5849231828061594e+000,
             6.3529049041038608e+000, 1.2663179009191148e+000,
             4.6032491661045709e+000, 1.2500000000000000e+001,
             1.1551211748878233e+001, 1.2500000000000000e+001,
             2.0304850258734559e+000, 1.2500000000000000e+001,
             1.0465635249773745e+001, 7.8825812037413261e+000,
             8.4128603920760270e+000, 9.3823511122989984e+000,
             5.9593298152397720e+000, 1.2500000000000000e+001,
             1.2500000000000000e+001, 6.8762940504045247e+000,
             3.1984045969769523e+000, 7.7799635395880662e+000,
             1.0559949818454406e+000, 1.2500000000000000e+001,
             1.2500000000000000e+001, 1.2500000000000000e+001,
             1.2500000000000000e+001, 1.8073412789892873e+000,
             7.4953806281596158e+000, 1.2500000000000000e+001,
             8.3265395129217641e+000, 1.2500000000000000e+001,
             1.2500000000000000e+001, 7.6611539835740219e+000,
             3.6419686830251474e+000, 6.4623335596605624e+000,
             1.2500000000000000e+001, 1.0614499028769604e+001,
             5.0522295298849018e+000, 2.7451468342795757e+000,
             1.2500000000000000e+001, 1.2500000000000000e+001,
             5.8812415653980548e+000, 1.2500000000000000e+001,
             1.2500000000000000e+001, 1.2500000000000000e+001,
             1.6781266569066275e+000, 1.2500000000000000e+001,
             1.2500000000000000e+001, 1.2500000000000000e+001,
             1.2500000000000000e+001, 1.2500000000000000e+001,
             8.5416287894828731e+000, 1.2500000000000000e+001,
             1.2500000000000000e+001, -1., -9.3166633322112613e-001,
             -1.2500000000000000e+001, -1.6420957076878087e+000,
             -3.0631232930974446e+000, -1.1458206305718743e+001,
             -1.1480623157724956e+001, -4.0200419776120428e+000,
             -1.0645926169035564e+000, -3.4631922677350619e+000,
             -2.9418028729076782e+000, -1.1785184282674139e+001,
             -4.0780815212556005e+000, -1.2500000000000000e+001,
             -7.9765586101607227e+000, -1.2500000000000000e+001,
             -1.2500000000000000e+001, -3.8123000026310176e+000,
             -9.7541009571561654e-001, -3.1976349609667398e+000,
             -1.2500000000000000e+001, -1.2500000000000000e+001,
             -1.8686369252011219e+000, -9.4941796792855477e+000,
             -1.2500000000000000e+001, -4.1240944600308875e+000,
             -5.6088223094225178e+000, -1.2500000000000000e+001,
             -5.1354114415575118e+000, -2.0151307195536550e+000,
             -3.8079822338521092e+000, -1.2500000000000000e+001,
             -3.8339899438246938e+000, -3.9707159102291323e+000,
             -4.1942684634016159e+000, -3.3010141369758692e+000,
             -1.8665933916204183e+000, -1.8877663546358137e+000,
             -2.0080285952721413e+000, -5.7337490585987476e+000,
             -2.0355989241377230e+000, -1.2500000000000000e+001,
             -3.9214257014697163e+000, -1.2500000000000000e+001,
             -3.9134658193942933e+000, -1.9240851967562698e+000,
             -9.0927519652495050e+000, -2.0016948597926190e+000,
             -1.1054226670749765e+000, -3.6380000124974994e+000,
             -1.0891015571305683e+001, -1.2500000000000000e+001,
             -2.0008726585033041e+000, -3.6264954558910052e+000,
             -6.8993586655306132e+000, -1.2500000000000000e+001,
             -3.9992852234488940e+000, -6.9441595440115007e+000,
             -1.4814858890500271e+000, -9.1982019084829070e-001,
             -1.2500000000000000e+001, -1.2500000000000000e+001,
             -1.0837836682155222e+000, -7.0204994665600520e+000,
             -1.2500000000000000e+001, -1.7314530189743824e+000,
             -6.8328956062670896e+000, -1.2500000000000000e+001,
             -1.0965203045496124e+000, -1.2500000000000000e+001,
             -1.9207140447354689e+000, -1.9191639391284037e+000,
             -7.8270416298774164e+000, -6.8815480995978699e+000,
             -8.8429670808594718e+000, -1.2500000000000000e+001,
             -1.2500000000000000e+001, -6.9614462793186060e+000,
             -1.9991420697400046e+000, -1.2500000000000000e+001,
             -1.1307361327915046e+001, -9.8759668479408802e-001,
             -1.2500000000000000e+001, -8.2622242293120518e+000,
             -8.9545951475939862e+000, -1.9949458820833250e+000,
             -1.5265546238125980e+000, -2.6760794007890496e+000,
             -2.0107642210612608e+000, -1.9195875382937251e+000,
             -1.2500000000000000e+001, -1.0199107441847474e+001,
             -7.6548262340156850e+000, -1.2500000000000000e+001,
             -3.8965140811005177e+000, -8.8503302793048881e+000,
             -2.0431342943780280e+000, -1.2500000000000000e+001,
             -2.0204154543684623e+000, -7.3999629836525109e+000,
             -5.4014282505180908e+000, -1.2500000000000000e+001,
             -2.8179203951190024e+000, -8.6467635709809942e-001,
             -1.2500000000000000e+001, -1.1481452842895337e+001,
             -9.7162233192766863e+000, -1.2500000000000000e+001,
             -1.2500000000000000e+001, -1.1641245201850710e+001,
             -1.2500000000000000e+001, -1.2500000000000000e+001,
             -1.2500000000000000e+001, -3.3459958551823235e+000,
             -3.8362809341581432e+000, -8.6840712374393858e-001,
             -5.0205190364480039e+000, -1.2641974210760869e+000,
             -5.6763790364782380e+000, -3.7592135760059082e+000,
             -5.3565327275468757e+000, -1.1261900833498872e+000,
             -6.6866021612243554e+000, -5.7568310946553520e+000,
             -9.9839811930709281e+000, -1.2500000000000000e+001,
             -1.2500000000000000e+001, -2.6416104609118167e+000,
             -5.7337046689871229e-001, -7.1781554616732954e+000,
             -1.8228862812920377e+000, -3.5776896418265891e+000,
             -1.4305423712706489e+000, -1.2500000000000000e+001,
             -9.1633986143666590e-001, -6.1783734663483418e+000,
             -2.9046688434723880e+000, -8.3254018543880264e+000,
             -1.3943336457874593e+000, -1.2500000000000000e+001,
             -9.9175451079698043e+000, -2.7615872412731273e+000,
             -3.2763414914749251e+000, -1.1989002923031968e+000,
             -9.4615928001104199e-001, -1.1639693400004711e+000,
             -1.2500000000000000e+001, -1.2500000000000000e+001,
             -3.9778289123461108e+000, -1.2500000000000000e+001,
             -9.9145141061324686e+000, -3.9552957742195503e+000,
             -9.2244563847837000e+000, -1.9069682756056330e+000,
             -5.0579443594777240e+000, -1.4943496736042456e+000,
             -1.2500000000000000e+001, -9.1816851932375663e+000,
             -2.0134041124674229e+000, -8.6107377309463988e+000,
             -5.3085560297875709e+000, -1.2500000000000000e+001,
             -5.8709485703667994e+000, -1.2500000000000000e+001,
             -1.2500000000000000e+001, -4.7102284353298502e+000,
             -1.1301012466522756e+001, -7.9127098538843672e+000,
             -1.3877195888129525e+000, -1.9736785023913623e+000,
             -1.2500000000000000e+001, -1.2500000000000000e+001,
             -1.2500000000000000e+001, -1.2500000000000000e+001,
             -1.2500000000000000e+001, -1.2500000000000000e+001,
             -1.2500000000000000e+001, -1.9099960973755294e+000,
             -1.2500000000000000e+001, -5.3145090910440143e+000,
             -1.2500000000000000e+001, -1.3551091271332587e+000,
             -6.3076042027817625e+000, -9.9471953854901773e-001,
             -1.2500000000000000e+001, -1.9944615051134749e+000,
             -1.0343260151580553e+000, -1.9899263778120551e+000,
             -1.0140846962569439e+001, -1.2500000000000000e+001,
             -3.6480414289557346e+000, -1.6160596537273761e+000,
             -1.9461369544977707e+000, -1.2500000000000000e+001,
             -1.6588360278619609e+000, -1.2500000000000000e+001,
             -2.9640744337583023e+000, -1.1087485594147793e+001,
             -3.7032185395695576e+000, -1.2500000000000000e+001,
             -6.8998991478432625e-001, -1.2500000000000000e+001,
             -2.5882912802427596e+000, -2.8794363027525924e+000,
             -1.7799452444853336e+000, -3.6442568616061206e+000,
             -9.3566333518867015e+000, -8.7910430163521234e+000,
             -1.5164761216110323e+000, -5.6595123326148267e+000,
             -1.2500000000000000e+001, -8.5940154054498734e+000,
             -6.1079150437951810e+000, -2.0319579011187554e+000,
             -5.1561526734447742e+000, -1.2500000000000000e+001,
             -1.7466262141983613e+000, -2.0224733434860003e+000,
             -1.1912157300537665e+000, -1.2500000000000000e+001,
             -1.1287991072826498e+001, -3.9079968179064881e+000,
             -1.2500000000000000e+001, -1.0925591852516682e+001,
             -1.2050916339689797e+001, -1.2500000000000000e+001,
             -1.6450203636287144e+000, -6.4696943303629944e+000,
             -1.8150037033924531e+000, -5.1974891474664737e+000,
             -1.2500000000000000e+001, -1.3346658332419803e+000,
             -2.0217535354256726e+000, -1.0944962298443002e+000,
             -3.7978576001188298e+000, -1.9424550074242040e+000,
             -9.4297590784260266e-001, -1.2500000000000000e+001,
             -3.9630338995799663e+000, -8.3373423531533852e-001,
             -2.9109893437547640e+000 ]
         index: [ 0, 1, 2, 3, 4, 5, 6, 7, 8, 9, 10, 11, 12, 13, 14, 15,
             16, 17, 18, 19, 20, 21, 22, 23, 24, 25, 26, 27, 28, 29, 30,
             31, 32, 33, 34, 35, 36, 37, 38, 39, 40, 41, 42, 43, 44, 45,
             46, 47, 48, 49, 50, 51, 52, 53, 54, 55, 56, 57, 58, 59, 60,
             61, 62, 63, 64, 65, 66, 67, 68, 69, 70, 71, 72, 73, 74, 75,
             76, 77, 78, 79, 80, 81, 82, 83, 84, 85, 86, 87, 88, 89, 90,
             91, 92, 93, 94, 95, 96, 97, 98, 99, 100, 101, 102, 103, 104,
             105, 106, 107, 108, 109, 110, 111, 112, 113, 114, 115, 116,
             117, 118, 119, 120, 121, 122, 123, 124, 125, 126, 127, 128,
             129, 130, 131, 132, 133, 134, 135, 136, 137, 138, 139, 140,
             141, 142, 143, 144, 145, 146, 147, 148, 149, 150, 151, 152,
             153, 154, 155, 156, 157, 158, 159, 160, 161, 162, 163, 164,
             165, 166, 167, 168, 169, 170, 171, 172, 173, 174, 175, 176,
             177, 178, 179, 180, 181, 182, 183, 184, 185, 186, 187, 188,
             189, 190, 191, 192, 193, 194, 195, 196, 197, 198, 199, 200,
             201, 202, 203, 204, 205, 206, 207, 208, 209, 210, 211, 212,
             213, 214, 215, 216, 217, 218, 219, 220, 221, 222, 223, 224,
             225, 226, 227, 228, 229, 230, 231, 232, 233, 234, 235, 236,
             237, 238, 239, 240, 241, 242, 243, 244, 245, 246, 247, 248,
             249, 250, 251, 252, 253, 254, 255, 256, 257, 258, 259, 260,
             261, 262, 263, 264, 265, 266, 267, 268, 269, 270, 271, 272,
             273, 274, 275, 276, 277, 278, 279, 280, 281, 282, 283, 284,
             285, 286, 287, 288, 289, 290, 291, 292, 293, 294, 295, 296,
             297, 298, 299, 300, 301, 302, 303, 304, 305, 306, 307, 308,
             309, 310, 311, 312, 313, 314, 315, 316, 317, 318, 319, 320,
             321, 322, 323, 324, 325, 326, 327, 328, 329, 330, 331, 332,
             333, 334, 335, 336, 337, 338, 339, 340, 341, 342, 343, 344,
             345, 346, 347, 348, 349, 350, 351, 352, 353, 354, 355, 356,
             357, 358, 359, 360, 361, 362, 363, 364, 365, 366, 367, 368,
             369, 370, 371, 372, 373, 374, 375, 376, 377, 378, 379, 380,
             381, 382, 383, 384, 385, 386, 387, 388, 389, 390, 391, 392,
             393, 394, 395, 396, 397, 398, 399, 400, 401, 402, 403, 404,
             405, 406, 407, 408, 409, 410, 411, 412, 413, 414, 415, 416,
             417, 418, 419, 420, 421, 422, 423, 424, 425, 426, 427, 428,
             429, 430, 431, 432, 433 ]
