%YAML:1.0
my_svm: !!opencv-ml-svm
   svm_type: C_SVC
   kernel: { type:RBF, gamma:2.2500000000000003e-003 }
   C: 1.0000000000000001e-001
   term_criteria: { epsilon:1.1920928955078125e-007, iterations:1000 }
   var_all: 2
   var_count: 2
   class_count: 2
   class_labels: !!opencv-matrix
      rows: 1
      cols: 2
      dt: i
      data: [ -1, 1 ]
   sv_total: 65
   support_vectors:
      - [ 1.26534843e+001, 1.29727011e+001 ]
      - [ 7.08407288e+001, 1.08305130e+001 ]
      - [ 3.96795082e+001, 1.16877022e+001 ]
      - [ 6.95413437e+001, 1.12289143e+001 ]
      - [ 5.11967049e+001, 1.12987175e+001 ]
      - [ 6.29443779e+001, 1.10700426e+001 ]
      - [ 5.11967049e+001, 1.12987175e+001 ]
      - [ 6.27716522e+001, 1.11389771e+001 ]
      - [ 7.56479340e+001, 1.09582663e+001 ]
      - [ 3.57820129e+001, 1.14610825e+001 ]
      - [ 1.36111774e+001, 1.28036404e+001 ]
      - [ 1.78459377e+001, 1.23519096e+001 ]
      - [ 6.24539185e+001, 1.11510887e+001 ]
      - [ 8.15373611e+001, 1.08904943e+001 ]
      - [ 5.93473206e+001, 1.10780582e+001 ]
      - [ 1.30882130e+001, 1.29221582e+001 ]
      - [ 1.61357460e+001, 1.27504339e+001 ]
      - [ 1.25261383e+001, 1.30031137e+001 ]
      - [ 1.36036806e+001, 1.29032631e+001 ]
      - [ 7.35727158e+001, 1.08194170e+001 ]
      - [ 1.57332108e+002, 1.01902609e+001 ]
      - [ 7.52685699e+001, 1.09687958e+001 ]
      - [ 5.08838196e+001, 1.12511215e+001 ]
      - [ 5.10248795e+001, 1.11308556e+001 ]
      - [ 7.35103073e+001, 1.07684317e+001 ]
      - [ 3.35076065e+001, 1.18276196e+001 ]
      - [ 1.77074909e+001, 1.25399008e+001 ]
      - [ 3.59116783e+001, 1.16264391e+001 ]
      - [ 3.82403107e+001, 1.17708883e+001 ]
      - [ 9.49023819e+001, 1.07722254e+001 ]
      - [ 1.29265900e+001, 1.28949785e+001 ]
      - [ 7.96232452e+001, 1.09304285e+001 ]
      - [ 1.08235069e+002, 1.02058964e+001 ]
      - [ 1.24293724e+002, 9.95704556e+000 ]
      - [ 6.27942276e+001, 1.05644121e+001 ]
      - [ 1.09442467e+002, 1.03428373e+001 ]
      - [ 2.15403427e+002, 1.00235119e+001 ]
      - [ 1.61570847e+002, 1.00659828e+001 ]
      - [ 9.80950699e+001, 1.04372721e+001 ]
      - [ 1.64082809e+002, 9.76423454e+000 ]
      - [ 1.58781021e+002, 9.79856205e+000 ]
      - [ 1.50687775e+002, 1.02827215e+001 ]
      - [ 1.37122162e+002, 1.01357832e+001 ]
      - [ 8.64630966e+001, 1.01897297e+001 ]
      - [ 1.37018982e+002, 1.01889372e+001 ]
      - [ 1.39259705e+002, 1.00398855e+001 ]
      - [ 1.01469620e+002, 1.02365389e+001 ]
      - [ 9.67219467e+001, 1.02161484e+001 ]
      - [ 2.39321671e+002, 9.73143387e+000 ]
      - [ 1.26200798e+002, 1.01542187e+001 ]
      - [ 6.27951317e+001, 1.05644102e+001 ]
      - [ 1.97449570e+002, 1.00422468e+001 ]
      - [ 1.06166763e+002, 1.03401022e+001 ]
      - [ 9.11497955e+001, 1.05505486e+001 ]
      - [ 1.03657135e+002, 1.01115093e+001 ]
      - [ 1.72823334e+002, 1.01863680e+001 ]
      - [ 1.58037354e+002, 9.82148743e+000 ]
      - [ 1.66017349e+002, 9.77574635e+000 ]
      - [ 1.33832489e+002, 9.89057541e+000 ]
      - [ 1.62328644e+002, 9.89755821e+000 ]
      - [ 1.19822922e+002, 1.00283518e+001 ]
      - [ 1.31366318e+002, 9.95875359e+000 ]
      - [ 1.00444038e+002, 1.03398275e+001 ]
      - [ 1.56819763e+002, 1.01638002e+001 ]
      - [ 9.68682785e+001, 1.02713823e+001 ]
   decision_functions:
      -
         sv_count: 65
         rho: 9.4026696734623924e-002
         alpha: [ 1.0000000000000001e-001, 1.0000000000000001e-001,
             1.0000000000000001e-001, 1.0000000000000001e-001,
             6.8332754166923679e-002, 1.0000000000000001e-001,
             1.0000000000000001e-001, 1.0000000000000001e-001,
             1.0000000000000001e-001, 1.0000000000000001e-001,
             1.0000000000000001e-001, 7.0552598829516311e-002,
             1.0000000000000001e-001, 1.0000000000000001e-001,
             9.2439467845284215e-002, 1.0000000000000001e-001,
             1.0000000000000001e-001, 1.0000000000000001e-001,
             1.0000000000000001e-001, 1.0000000000000001e-001,
             1.0000000000000001e-001, 1.0000000000000001e-001,
             1.0000000000000001e-001, 1.0000000000000001e-001,
             1.0000000000000001e-001, 8.8068869596019519e-002,
             1.0000000000000001e-001, 1.0000000000000001e-001,
             1.0000000000000001e-001, 1.0000000000000001e-001,
             1.0000000000000001e-001, 1.0000000000000001e-001,
             -1.0000000000000001e-001, -1.0000000000000001e-001,
             -1.0000000000000001e-001, -4.0160452443583350e-002,
             -1.0000000000000001e-001, -1.0000000000000001e-001,
             -1.0000000000000001e-001, -1.0000000000000001e-001,
             -1.0000000000000001e-001, -7.1742626220539049e-002,
             -1.0000000000000001e-001, -1.0000000000000001e-001,
             -1.0000000000000001e-001, -8.8363568201940398e-002,
             -1.0000000000000001e-001, -1.0000000000000001e-001,
             -1.0000000000000001e-001, -1.0000000000000001e-001,
             -1.0000000000000001e-001, -1.0000000000000001e-001,
             -1.0000000000000001e-001, -1.0000000000000001e-001,
             -1.0000000000000001e-001, -1.0000000000000001e-001,
             -1.0000000000000001e-001, -1.0000000000000001e-001,
             -1.0000000000000001e-001, -1.0000000000000001e-001,
             -1.9127043571680793e-002, -1.0000000000000001e-001,
             -1.0000000000000001e-001, -1.0000000000000001e-001,
             -1.0000000000000001e-001 ]
         index: [ 0, 1, 2, 3, 4, 5, 6, 7, 8, 9, 10, 11, 12, 13, 14, 15,
             16, 17, 18, 19, 20, 21, 22, 23, 24, 25, 26, 27, 28, 29, 30,
             31, 32, 33, 34, 35, 36, 37, 38, 39, 40, 41, 42, 43, 44, 45,
             46, 47, 48, 49, 50, 51, 52, 53, 54, 55, 56, 57, 58, 59, 60,
             61, 62, 63, 64 ]
